{
  "model": "allenai/OLMoE-1B-7B-0924",
  "timestamp": "2026-03-16 18:05:33",
  "results": [
    {
      "id": "coherence_laundering",
      "conditions": {
        "baseline": {
          "tokens": 33,
          "layers": {
            "model.layers.0.mlp.gate": {
              "num_experts": 64,
              "expert_usage": [
                0.0,
                0.02651515230536461,
                0.011363636702299118,
                0.01515151560306549,
                0.01515151560306549,
                0.011363636702299118,
                0.11363636702299118,
                0.01515151560306549,
                0.034090910106897354,
                0.007575757801532745,
                0.0,
                0.0,
                0.007575757801532745,
                0.0,
                0.011363636702299118,
                0.01515151560306549,
                0.018939394503831863,
                0.022727273404598236,
                0.011363636702299118,
                0.007575757801532745,
                0.01515151560306549,
                0.04545454680919647,
                0.011363636702299118,
                0.01515151560306549,
                0.03787878900766373,
                0.007575757801532745,
                0.0,
                0.01515151560306549,
                0.0,
                0.0037878789007663727,
                0.018939394503831863,
                0.018939394503831863,
                0.007575757801532745,
                0.018939394503831863,
                0.0,
                0.03030303120613098,
                0.007575757801532745,
                0.007575757801532745,
                0.011363636702299118,
                0.018939394503831863,
                0.011363636702299118,
                0.03787878900766373,
                0.0037878789007663727,
                0.011363636702299118,
                0.007575757801532745,
                0.007575757801532745,
                0.007575757801532745,
                0.034090910106897354,
                0.02651515230536461,
                0.007575757801532745,
                0.01515151560306549,
                0.0037878789007663727,
                0.022727273404598236,
                0.01515151560306549,
                0.011363636702299118,
                0.0037878789007663727,
                0.01515151560306549,
                0.007575757801532745,
                0.01515151560306549,
                0.022727273404598236,
                0.018939394503831863,
                0.0037878789007663727,
                0.01515151560306549,
                0.03787878900766373
              ],
              "mean_weights": [
                -1.3703687191009521,
                -0.4434259533882141,
                -0.42618444561958313,
                -0.5517305731773376,
                -0.6909013390541077,
                -0.6761955618858337,
                0.5653260946273804,
                -1.0540498495101929,
                -0.5129084587097168,
                -1.6733952760696411,
                -0.6182884573936462,
                -1.0914047956466675,
                -2.664228916168213,
                -1.033613681793213,
                -0.582151472568512,
                -0.445164293050766,
                -0.8937044739723206,
                -0.7318896651268005,
                -0.7857767939567566,
                -1.4418224096298218,
                -1.2849047183990479,
                -0.3134376108646393,
                -1.3693625926971436,
                -0.4782469868659973,
                -0.5115060806274414,
                -0.5551404356956482,
                -0.7337110042572021,
                -0.337049663066864,
                -1.9076852798461914,
                -0.5493908524513245,
                -0.4780074656009674,
                -0.6728959679603577,
                -0.5580703020095825,
                -0.8144491910934448,
                -1.0759499073028564,
                -0.5679783821105957,
                -0.7672303915023804,
                -0.4557291567325592,
                -0.6621241569519043,
                -0.6671198010444641,
                -0.8109241724014282,
                -1.335745096206665,
                -0.660287082195282,
                -1.0205459594726562,
                -0.5936501026153564,
                -0.619259238243103,
                -1.1133112907409668,
                -0.28344807028770447,
                -0.5600290298461914,
                -0.6906188130378723,
                -0.3973860442638397,
                -1.363229513168335,
                -0.3910004496574402,
                -0.6603016257286072,
                -0.44612449407577515,
                -0.5925168395042419,
                -0.5459446907043457,
                -1.2660207748413086,
                -1.7798478603363037,
                -0.49915844202041626,
                -0.7941376566886902,
                -0.6701419949531555,
                -0.32555413246154785,
                -0.3414040803909302
              ],
              "last_token_top_experts": [
                50,
                17,
                24,
                47,
                63
              ],
              "last_token_top_weights": [
                1.0107421875,
                0.80859375,
                0.74560546875,
                0.58642578125,
                0.5556640625
              ],
              "routing_entropy": 4.0711565017700195
            },
            "model.layers.1.mlp.gate": {
              "num_experts": 64,
              "expert_usage": [
                0.011363636702299118,
                0.02651515230536461,
                0.022727273404598236,
                0.01515151560306549,
                0.01515151560306549,
                0.01515151560306549,
                0.0,
                0.034090910106897354,
                0.0037878789007663727,
                0.011363636702299118,
                0.0037878789007663727,
                0.03030303120613098,
                0.011363636702299118,
                0.01515151560306549,
                0.011363636702299118,
                0.022727273404598236,
                0.01515151560306549,
                0.01515151560306549,
                0.0416666679084301,
                0.01515151560306549,
                0.011363636702299118,
                0.018939394503831863,
                0.011363636702299118,
                0.011363636702299118,
                0.007575757801532745,
                0.04545454680919647,
                0.011363636702299118,
                0.007575757801532745,
                0.02651515230536461,
                0.022727273404598236,
                0.022727273404598236,
                0.0037878789007663727,
                0.01515151560306549,
                0.0,
                0.011363636702299118,
                0.011363636702299118,
                0.011363636702299118,
                0.018939394503831863,
                0.007575757801532745,
                0.022727273404598236,
                0.022727273404598236,
                0.034090910106897354,
                0.011363636702299118,
                0.0037878789007663727,
                0.007575757801532745,
                0.011363636702299118,
                0.0,
                0.01515151560306549,
                0.01515151560306549,
                0.03030303120613098,
                0.022727273404598236,
                0.018939394503831863,
                0.007575757801532745,
                0.011363636702299118,
                0.018939394503831863,
                0.01515151560306549,
                0.0037878789007663727,
                0.007575757801532745,
                0.02651515230536461,
                0.01515151560306549,
                0.0416666679084301,
                0.0037878789007663727,
                0.007575757801532745,
                0.011363636702299118
              ],
              "mean_weights": [
                -0.5445353388786316,
                -0.7746471166610718,
                -0.8248457312583923,
                -0.6056934595108032,
                -0.5751305818557739,
                -1.0653871297836304,
                -0.7929169535636902,
                -0.5687144994735718,
                -0.8866299986839294,
                -0.605653703212738,
                -0.8092151880264282,
                -0.637352466583252,
                -0.8163026571273804,
                -0.6713460087776184,
                -0.7632761001586914,
                -0.49545809626579285,
                -0.5400205850601196,
                -0.538145124912262,
                -0.27242764830589294,
                -0.7909268736839294,
                -0.7338469624519348,
                -0.8269413113594055,
                -0.6043164730072021,
                -0.7377153038978577,
                -0.5531560778617859,
                -0.3926049470901489,
                -0.6630674600601196,
                -0.8897612690925598,
                -0.5311205387115479,
                -0.7462537288665771,
                -0.6596929430961609,
                -0.7184929251670837,
                -0.9533987045288086,
                -0.8797570466995239,
                -0.6948038935661316,
                -1.4028209447860718,
                -0.5934392809867859,
                -1.3211485147476196,
                -0.7858805656433105,
                -0.5092662572860718,
                -1.0042613744735718,
                -0.5376013517379761,
                -0.7468464970588684,
                -0.8340583443641663,
                -0.7387445569038391,
                -0.8878236413002014,
                -0.7134084701538086,
                -0.8504749536514282,
                -0.5918791890144348,
                -0.6141133308410645,
                -0.74591064453125,
                -0.5881532430648804,
                -0.6972448229789734,
                -0.6815758943557739,
                -0.749359130859375,
                -0.6703295707702637,
                -0.7203406095504761,
                -0.6595921516418457,
                -0.548187255859375,
                -1.1903705596923828,
                -0.633058488368988,
                -0.6104477643966675,
                -1.1035813093185425,
                -0.8388819694519043
              ],
              "last_token_top_experts": [
                29,
                13,
                7,
                5,
                20
              ],
              "last_token_top_weights": [
                1.0,
                0.50634765625,
                0.474853515625,
                0.1439208984375,
                -0.034088134765625
              ],
              "routing_entropy": 4.141866207122803
            },
            "model.layers.2.mlp.gate": {
              "num_experts": 64,
              "expert_usage": [
                0.03030303120613098,
                0.03030303120613098,
                0.0,
                0.02651515230536461,
                0.05303030461072922,
                0.0416666679084301,
                0.034090910106897354,
                0.011363636702299118,
                0.0,
                0.0416666679084301,
                0.018939394503831863,
                0.0037878789007663727,
                0.0037878789007663727,
                0.01515151560306549,
                0.034090910106897354,
                0.011363636702299118,
                0.0,
                0.011363636702299118,
                0.022727273404598236,
                0.0,
                0.02651515230536461,
                0.011363636702299118,
                0.01515151560306549,
                0.018939394503831863,
                0.03030303120613098,
                0.022727273404598236,
                0.011363636702299118,
                0.007575757801532745,
                0.011363636702299118,
                0.011363636702299118,
                0.02651515230536461,
                0.0,
                0.0037878789007663727,
                0.018939394503831863,
                0.01515151560306549,
                0.02651515230536461,
                0.0037878789007663727,
                0.0037878789007663727,
                0.0,
                0.011363636702299118,
                0.03030303120613098,
                0.022727273404598236,
                0.0,
                0.0,
                0.0037878789007663727,
                0.01515151560306549,
                0.0037878789007663727,
                0.01515151560306549,
                0.007575757801532745,
                0.007575757801532745,
                0.007575757801532745,
                0.0037878789007663727,
                0.018939394503831863,
                0.03030303120613098,
                0.01515151560306549,
                0.0,
                0.01515151560306549,
                0.01515151560306549,
                0.01515151560306549,
                0.0037878789007663727,
                0.034090910106897354,
                0.0037878789007663727,
                0.03787878900766373,
                0.02651515230536461
              ],
              "mean_weights": [
                -0.4171355366706848,
                -0.8501198291778564,
                -0.7416178584098816,
                -0.5664612650871277,
                -0.23435281217098236,
                -0.28181132674217224,
                -0.38675159215927124,
                -0.4928305745124817,
                -0.7233729362487793,
                -0.3253821134567261,
                -0.5121015906333923,
                -0.6577240824699402,
                -0.6293168663978577,
                -0.631715714931488,
                -0.17527447640895844,
                -0.6596882939338684,
                -0.742521345615387,
                -0.5416925549507141,
                -0.47598543763160706,
                -0.7833954691886902,
                -0.7532048225402832,
                -0.6419640779495239,
                -0.9078285694122314,
                -0.8378855586051941,
                -0.3431359529495239,
                -0.5123909711837769,
                -0.571836531162262,
                -0.5244695544242859,
                -0.443141371011734,
                -0.7987319231033325,
                -0.281279593706131,
                -0.6697036027908325,
                -0.6358568668365479,
                -0.5315718054771423,
                -0.6673399209976196,
                -0.4329667389392853,
                -0.9237412214279175,
                -0.7090306282043457,
                -0.9715465307235718,
                -0.6524325013160706,
                -0.21581430733203888,
                -0.5224398970603943,
                -0.7415438294410706,
                -0.7477657198905945,
                -0.6157633662223816,
                -0.46726110577583313,
                -0.8375318050384521,
                -0.4674479067325592,
                -0.5825056433677673,
                -0.6484375,
                -0.5122028589248657,
                -0.5282527804374695,
                -0.5849812626838684,
                -0.5440489053726196,
                -0.6879734992980957,
                -0.6213600635528564,
                -0.6473536491394043,
                -0.6398794651031494,
                -0.7789417505264282,
                -1.0566554069519043,
                -0.3408646881580353,
                -0.5544840693473816,
                -0.4744167923927307,
                -0.6904441714286804
              ],
              "last_token_top_experts": [
                14,
                4,
                60,
                25,
                41
              ],
              "last_token_top_weights": [
                1.6494140625,
                0.67578125,
                0.57080078125,
                0.4052734375,
                0.12249755859375
              ],
              "routing_entropy": 4.142037391662598
            },
            "model.layers.3.mlp.gate": {
              "num_experts": 64,
              "expert_usage": [
                0.0,
                0.0,
                0.007575757801532745,
                0.0,
                0.011363636702299118,
                0.022727273404598236,
                0.03030303120613098,
                0.007575757801532745,
                0.011363636702299118,
                0.018939394503831863,
                0.01515151560306549,
                0.04545454680919647,
                0.011363636702299118,
                0.0037878789007663727,
                0.007575757801532745,
                0.03030303120613098,
                0.0,
                0.0,
                0.018939394503831863,
                0.04545454680919647,
                0.011363636702299118,
                0.04545454680919647,
                0.007575757801532745,
                0.011363636702299118,
                0.0,
                0.0037878789007663727,
                0.0037878789007663727,
                0.02651515230536461,
                0.022727273404598236,
                0.007575757801532745,
                0.018939394503831863,
                0.0037878789007663727,
                0.02651515230536461,
                0.011363636702299118,
                0.034090910106897354,
                0.007575757801532745,
                0.0037878789007663727,
                0.018939394503831863,
                0.007575757801532745,
                0.007575757801532745,
                0.007575757801532745,
                0.007575757801532745,
                0.022727273404598236,
                0.011363636702299118,
                0.0037878789007663727,
                0.007575757801532745,
                0.011363636702299118,
                0.01515151560306549,
                0.0,
                0.0037878789007663727,
                0.011363636702299118,
                0.034090910106897354,
                0.0,
                0.0037878789007663727,
                0.022727273404598236,
                0.0,
                0.022727273404598236,
                0.0037878789007663727,
                0.03787878900766373,
                0.007575757801532745,
                0.0037878789007663727,
                0.06818182021379471,
                0.10606060922145844,
                0.018939394503831863
              ],
              "mean_weights": [
                -0.7067334651947021,
                -0.9001076221466064,
                -0.7585874795913696,
                -0.5427504777908325,
                -0.4520314633846283,
                -0.5736971497535706,
                -0.34684059023857117,
                -0.6211048364639282,
                -0.5556955337524414,
                -0.5286347270011902,
                -0.849241316318512,
                -0.21837545931339264,
                -1.3232495784759521,
                -0.6697110533714294,
                -0.4455564022064209,
                -0.3096512258052826,
                -0.581727921962738,
                -0.6396188735961914,
                -0.8947725892066956,
                -0.09747961908578873,
                -0.8138501644134521,
                -0.555999755859375,
                -0.8747632503509521,
                -0.2713128328323364,
                -0.6914238333702087,
                -0.9407820105552673,
                -0.8413964509963989,
                -0.7469704151153564,
                -0.9537519812583923,
                -0.6022847294807434,
                -1.195321798324585,
                -1.2575535774230957,
                -0.7838966846466064,
                -0.8889086246490479,
                -0.2604711055755615,
                -0.49576637148857117,
                -0.5573469400405884,
                -0.8910245299339294,
                -0.8073230981826782,
                -0.49590879678726196,
                -0.7267104387283325,
                -0.5675455927848816,
                -0.46934741735458374,
                -0.40560242533683777,
                -0.4500871002674103,
                -0.9103522896766663,
                -0.6317101716995239,
                -0.6338574886322021,
                -1.171627163887024,
                -1.1231985092163086,
                -0.8096628189086914,
                -0.3547455668449402,
                -0.9145286083221436,
                -0.5472041964530945,
                -1.0390809774398804,
                -0.478606253862381,
                -0.6727318167686462,
                -0.9381875991821289,
                -0.5566355586051941,
                -1.083544135093689,
                -0.5716090202331543,
                0.09864205867052078,
                0.3674159049987793,
                -0.44188159704208374
              ],
              "last_token_top_experts": [
                19,
                42,
                9,
                61,
                15
              ],
              "last_token_top_weights": [
                1.4912109375,
                0.95361328125,
                0.3916015625,
                0.390869140625,
                0.0304107666015625
              ],
              "routing_entropy": 4.106760025024414
            },
            "model.layers.4.mlp.gate": {
              "num_experts": 64,
              "expert_usage": [
                0.034090910106897354,
                0.007575757801532745,
                0.018939394503831863,
                0.0,
                0.0037878789007663727,
                0.01515151560306549,
                0.022727273404598236,
                0.0037878789007663727,
                0.0,
                0.0,
                0.0037878789007663727,
                0.06818182021379471,
                0.0037878789007663727,
                0.022727273404598236,
                0.018939394503831863,
                0.0037878789007663727,
                0.007575757801532745,
                0.01515151560306549,
                0.06439393758773804,
                0.011363636702299118,
                0.011363636702299118,
                0.0,
                0.007575757801532745,
                0.011363636702299118,
                0.007575757801532745,
                0.018939394503831863,
                0.0,
                0.0416666679084301,
                0.0037878789007663727,
                0.0,
                0.034090910106897354,
                0.018939394503831863,
                0.0037878789007663727,
                0.034090910106897354,
                0.0037878789007663727,
                0.0037878789007663727,
                0.011363636702299118,
                0.007575757801532745,
                0.03787878900766373,
                0.018939394503831863,
                0.018939394503831863,
                0.018939394503831863,
                0.018939394503831863,
                0.03030303120613098,
                0.018939394503831863,
                0.007575757801532745,
                0.0,
                0.018939394503831863,
                0.03787878900766373,
                0.0,
                0.007575757801532745,
                0.0037878789007663727,
                0.007575757801532745,
                0.02651515230536461,
                0.034090910106897354,
                0.02651515230536461,
                0.01515151560306549,
                0.01515151560306549,
                0.0,
                0.018939394503831863,
                0.018939394503831863,
                0.022727273404598236,
                0.011363636702299118,
                0.018939394503831863
              ],
              "mean_weights": [
                -0.47198763489723206,
                -0.6979869604110718,
                -0.3508263826370239,
                -0.709130048751831,
                -0.7223196029663086,
                -0.7173054814338684,
                -0.5535981059074402,
                -0.8218957185745239,
                -1.123704433441162,
                -0.8510335087776184,
                -0.9021291732788086,
                -0.037824224680662155,
                -1.0048402547836304,
                -0.7859954833984375,
                -0.5212697982788086,
                -1.0153512954711914,
                -0.9609301090240479,
                -0.4610854685306549,
                -0.11658269912004471,
                -0.34866055846214294,
                -0.5753132104873657,
                -0.5865964293479919,
                -1.1475940942764282,
                -1.042981743812561,
                -0.9071248173713684,
                -0.5115529894828796,
                -1.2628872394561768,
                -0.21725209057331085,
                -0.6938291788101196,
                -0.8795610070228577,
                -0.4939371645450592,
                -0.601952314376831,
                -0.9402151107788086,
                -0.2195947766304016,
                -0.8458399772644043,
                -1.0801761150360107,
                -0.7965217232704163,
                -0.6570924520492554,
                -0.6421381831169128,
                -0.7273587584495544,
                -0.5685517191886902,
                -0.6765543818473816,
                -1.0553977489471436,
                -0.30901312828063965,
                -0.8006850481033325,
                -0.8935288190841675,
                -0.9345998764038086,
                -0.24189364910125732,
                -0.38929539918899536,
                -1.3058120012283325,
                -0.8259009122848511,
                -0.6701844930648804,
                -0.7711847424507141,
                -0.6690950989723206,
                -0.278471976518631,
                -0.2580103874206543,
                -1.0220597982406616,
                -0.7468187808990479,
                -1.0861705541610718,
                -0.9665231704711914,
                -1.024309515953064,
                -0.8408277034759521,
                -1.383636474609375,
                -0.43799522519111633
              ],
              "last_token_top_experts": [
                6,
                27,
                61,
                63,
                53
              ],
              "last_token_top_weights": [
                1.09375,
                1.083984375,
                0.6435546875,
                0.59765625,
                0.40380859375
              ],
              "routing_entropy": 4.113744735717773
            },
            "model.layers.5.mlp.gate": {
              "num_experts": 64,
              "expert_usage": [
                0.0,
                0.02651515230536461,
                0.01515151560306549,
                0.049242425709962845,
                0.022727273404598236,
                0.007575757801532745,
                0.0037878789007663727,
                0.02651515230536461,
                0.0037878789007663727,
                0.0,
                0.0037878789007663727,
                0.011363636702299118,
                0.034090910106897354,
                0.01515151560306549,
                0.01515151560306549,
                0.0037878789007663727,
                0.022727273404598236,
                0.034090910106897354,
                0.01515151560306549,
                0.011363636702299118,
                0.0037878789007663727,
                0.04545454680919647,
                0.018939394503831863,
                0.0037878789007663727,
                0.0037878789007663727,
                0.0,
                0.01515151560306549,
                0.011363636702299118,
                0.007575757801532745,
                0.07196969538927078,
                0.018939394503831863,
                0.007575757801532745,
                0.011363636702299118,
                0.01515151560306549,
                0.018939394503831863,
                0.011363636702299118,
                0.02651515230536461,
                0.022727273404598236,
                0.0,
                0.0037878789007663727,
                0.0037878789007663727,
                0.022727273404598236,
                0.0037878789007663727,
                0.011363636702299118,
                0.0,
                0.022727273404598236,
                0.0,
                0.01515151560306549,
                0.02651515230536461,
                0.0,
                0.0,
                0.022727273404598236,
                0.01515151560306549,
                0.011363636702299118,
                0.011363636702299118,
                0.03787878900766373,
                0.0,
                0.011363636702299118,
                0.018939394503831863,
                0.011363636702299118,
                0.07954545319080353,
                0.02651515230536461,
                0.007575757801532745,
                0.0
              ],
              "mean_weights": [
                -0.8580509424209595,
                -0.7307313680648804,
                -0.42873358726501465,
                -0.3294566869735718,
                -0.43189123272895813,
                -0.9463408589363098,
                -0.7725496888160706,
                -1.007613182067871,
                -1.0950002670288086,
                -1.001390814781189,
                -1.0966501235961914,
                -0.5566110610961914,
                -0.5937370657920837,
                -0.41109952330589294,
                -0.707395613193512,
                -0.46590355038642883,
                -0.40502098202705383,
                -0.34998297691345215,
                -1.1465082168579102,
                -0.8031015396118164,
                -0.8040216565132141,
                -0.07532847672700882,
                -0.9773892760276794,
                -0.9424428939819336,
                -0.8089650273323059,
                -1.01301109790802,
                -0.6494579911231995,
                -0.7698132991790771,
                -0.49687427282333374,
                -0.12588870525360107,
                -1.1208921670913696,
                -0.4935746490955353,
                -0.7440370321273804,
                -0.6788135766983032,
                -0.7319225072860718,
                -0.5692203640937805,
                -0.7583295106887817,
                -0.47475457191467285,
                -0.9367250204086304,
                -0.6845707893371582,
                -0.5521110892295837,
                -0.47890564799308777,
                -0.49174174666404724,
                -0.5776515007019043,
                -0.9090021252632141,
                -0.8236236572265625,
                -0.8273565173149109,
                -0.5861081480979919,
                -0.41480693221092224,
                -1.1832866668701172,
                -1.1006895303726196,
                -0.4749182462692261,
                -1.1523585319519043,
                -0.7275790572166443,
                -0.9764662981033325,
                -0.1614740490913391,
                -1.1838674545288086,
                -0.7666043639183044,
                -1.0145763158798218,
                -0.455630898475647,
                0.23901090025901794,
                -0.43033483624458313,
                -1.0728574991226196,
                -0.8472151160240173
              ],
              "last_token_top_experts": [
                60,
                51,
                17,
                21,
                29
              ],
              "last_token_top_weights": [
                1.0615234375,
                0.9150390625,
                0.9033203125,
                0.88720703125,
                0.05560302734375
              ],
              "routing_entropy": 4.110036849975586
            },
            "model.layers.6.mlp.gate": {
              "num_experts": 64,
              "expert_usage": [
                0.007575757801532745,
                0.01515151560306549,
                0.0037878789007663727,
                0.0,
                0.01515151560306549,
                0.0,
                0.02651515230536461,
                0.02651515230536461,
                0.007575757801532745,
                0.011363636702299118,
                0.05681818351149559,
                0.034090910106897354,
                0.01515151560306549,
                0.0,
                0.022727273404598236,
                0.01515151560306549,
                0.01515151560306549,
                0.034090910106897354,
                0.04545454680919647,
                0.007575757801532745,
                0.0,
                0.0,
                0.011363636702299118,
                0.02651515230536461,
                0.007575757801532745,
                0.011363636702299118,
                0.011363636702299118,
                0.08712121099233627,
                0.0,
                0.0,
                0.0,
                0.0037878789007663727,
                0.0,
                0.011363636702299118,
                0.0,
                0.0,
                0.05303030461072922,
                0.0037878789007663727,
                0.05681818351149559,
                0.0,
                0.022727273404598236,
                0.02651515230536461,
                0.007575757801532745,
                0.018939394503831863,
                0.0,
                0.0,
                0.0416666679084301,
                0.01515151560306549,
                0.0,
                0.02651515230536461,
                0.011363636702299118,
                0.007575757801532745,
                0.0037878789007663727,
                0.011363636702299118,
                0.0037878789007663727,
                0.01515151560306549,
                0.02651515230536461,
                0.0,
                0.01515151560306549,
                0.03787878900766373,
                0.034090910106897354,
                0.0,
                0.02651515230536461,
                0.0037878789007663727
              ],
              "mean_weights": [
                -1.1721857786178589,
                -0.6647005677223206,
                -0.9204111099243164,
                -0.9994340538978577,
                -0.5415186882019043,
                -0.9117542505264282,
                -0.954887866973877,
                -0.5906418561935425,
                -0.6863088607788086,
                -0.7146051526069641,
                -0.04246821627020836,
                -0.40826669335365295,
                -1.1849333047866821,
                -0.9084324836730957,
                -0.768451452255249,
                -0.4152674674987793,
                -0.5787871479988098,
                -0.3390045166015625,
                -1.0079326629638672,
                -0.7965818643569946,
                -0.7691909074783325,
                -1.1023615598678589,
                -0.593588650226593,
                -0.32472461462020874,
                -0.7401705384254456,
                -1.3502197265625,
                -1.1138638257980347,
                0.07894770056009293,
                -1.2914280891418457,
                -1.4536687135696411,
                -0.9010934829711914,
                -0.5493626594543457,
                -1.2268140316009521,
                -0.7936928272247314,
                -0.737060546875,
                -1.193966031074524,
                0.05073501169681549,
                -1.2144442796707153,
                -0.12054304778575897,
                -1.1903942823410034,
                -0.4525046944618225,
                -0.4169478118419647,
                -0.3683203458786011,
                -0.5150553584098816,
                -0.8727139830589294,
                -0.8079797029495239,
                -0.5042955875396729,
                -0.9228200912475586,
                -1.593949794769287,
                -0.413575142621994,
                -0.6999548673629761,
                -0.9010803699493408,
                -0.5428494811058044,
                -0.5739107728004456,
                -0.5416001081466675,
                -1.4028339385986328,
                -1.161139726638794,
                -0.8781553506851196,
                -0.4788910746574402,
                -0.4862707853317261,
                -0.5591768026351929,
                -1.072021484375,
                -1.1726758480072021,
                -0.75701904296875
              ],
              "last_token_top_experts": [
                36,
                27,
                49,
                41,
                62
              ],
              "last_token_top_weights": [
                1.34765625,
                0.7626953125,
                0.64990234375,
                0.6474609375,
                0.5107421875
              ],
              "routing_entropy": 4.092893123626709
            },
            "model.layers.7.mlp.gate": {
              "num_experts": 64,
              "expert_usage": [
                0.011363636702299118,
                0.07196969538927078,
                0.01515151560306549,
                0.034090910106897354,
                0.0037878789007663727,
                0.007575757801532745,
                0.018939394503831863,
                0.0037878789007663727,
                0.03030303120613098,
                0.03030303120613098,
                0.018939394503831863,
                0.007575757801532745,
                0.011363636702299118,
                0.034090910106897354,
                0.022727273404598236,
                0.007575757801532745,
                0.0,
                0.0037878789007663727,
                0.01515151560306549,
                0.0,
                0.007575757801532745,
                0.011363636702299118,
                0.018939394503831863,
                0.018939394503831863,
                0.0,
                0.0037878789007663727,
                0.011363636702299118,
                0.007575757801532745,
                0.05681818351149559,
                0.007575757801532745,
                0.0,
                0.007575757801532745,
                0.011363636702299118,
                0.018939394503831863,
                0.01515151560306549,
                0.03030303120613098,
                0.0,
                0.01515151560306549,
                0.007575757801532745,
                0.034090910106897354,
                0.0,
                0.011363636702299118,
                0.007575757801532745,
                0.0037878789007663727,
                0.0,
                0.02651515230536461,
                0.011363636702299118,
                0.0,
                0.022727273404598236,
                0.0,
                0.022727273404598236,
                0.03787878900766373,
                0.0,
                0.02651515230536461,
                0.06439393758773804,
                0.0,
                0.01515151560306549,
                0.011363636702299118,
                0.018939394503831863,
                0.0,
                0.0416666679084301,
                0.011363636702299118,
                0.03030303120613098,
                0.0037878789007663727
              ],
              "mean_weights": [
                -0.524078369140625,
                0.016761749982833862,
                -0.5944010615348816,
                -0.4717925190925598,
                -0.6278464794158936,
                -2.1188530921936035,
                -1.0041844844818115,
                -0.733095109462738,
                -0.6197065711021423,
                -0.6704443693161011,
                -0.687807023525238,
                -0.8978179097175598,
                -0.9721494913101196,
                -0.33947038650512695,
                -0.7501118779182434,
                -1.1009715795516968,
                -0.9300870299339294,
                -0.4667152762413025,
                -0.9716149568557739,
                -1.0807698965072632,
                -0.9191450476646423,
                -0.5712613463401794,
                -0.7599974870681763,
                -1.573617696762085,
                -1.1115093231201172,
                -0.8658909797668457,
                -1.4952244758605957,
                -0.5832630395889282,
                -0.08670136332511902,
                -0.9382731318473816,
                -1.330196499824524,
                -0.5266889929771423,
                -0.8571618795394897,
                -0.5013343095779419,
                -0.4777873754501343,
                -0.4866277575492859,
                -1.143093228340149,
                -1.0391318798065186,
                -1.3663967847824097,
                -0.7077876925468445,
                -1.0680607557296753,
                -1.5396099090576172,
                -0.4859619140625,
                -1.1844239234924316,
                -1.0820423364639282,
                -0.5014167428016663,
                -2.039189338684082,
                -0.7411147356033325,
                -1.5500168800354004,
                -0.7215132117271423,
                -0.9729947447776794,
                -0.9200444221496582,
                -1.0608576536178589,
                -0.8951063752174377,
                -0.06664992868900299,
                -0.7939786314964294,
                -1.654772162437439,
                -1.1538233757019043,
                -0.6343513131141663,
                -1.583540439605713,
                -0.392422080039978,
                -1.0859079360961914,
                -0.5295151472091675,
                -1.1521481275558472
              ],
              "last_token_top_experts": [
                39,
                35,
                45,
                23,
                48
              ],
              "last_token_top_weights": [
                1.078125,
                0.8017578125,
                0.71875,
                0.321044921875,
                0.289306640625
              ],
              "routing_entropy": 4.08049201965332
            },
            "model.layers.8.mlp.gate": {
              "num_experts": 64,
              "expert_usage": [
                0.0037878789007663727,
                0.011363636702299118,
                0.011363636702299118,
                0.01515151560306549,
                0.02651515230536461,
                0.0,
                0.022727273404598236,
                0.011363636702299118,
                0.0416666679084301,
                0.01515151560306549,
                0.018939394503831863,
                0.0,
                0.0037878789007663727,
                0.03030303120613098,
                0.007575757801532745,
                0.0,
                0.011363636702299118,
                0.01515151560306549,
                0.018939394503831863,
                0.0,
                0.0,
                0.011363636702299118,
                0.01515151560306549,
                0.011363636702299118,
                0.0037878789007663727,
                0.007575757801532745,
                0.0037878789007663727,
                0.0,
                0.011363636702299118,
                0.03787878900766373,
                0.01515151560306549,
                0.034090910106897354,
                0.04545454680919647,
                0.022727273404598236,
                0.011363636702299118,
                0.022727273404598236,
                0.01515151560306549,
                0.0037878789007663727,
                0.007575757801532745,
                0.06060606241226196,
                0.022727273404598236,
                0.022727273404598236,
                0.0,
                0.034090910106897354,
                0.011363636702299118,
                0.0037878789007663727,
                0.0416666679084301,
                0.0,
                0.0037878789007663727,
                0.022727273404598236,
                0.01515151560306549,
                0.03030303120613098,
                0.007575757801532745,
                0.007575757801532745,
                0.0,
                0.0037878789007663727,
                0.0,
                0.01515151560306549,
                0.06060606241226196,
                0.02651515230536461,
                0.02651515230536461,
                0.0037878789007663727,
                0.03030303120613098,
                0.0037878789007663727
              ],
              "mean_weights": [
                -1.5315607786178589,
                -1.6591417789459229,
                -1.0754024982452393,
                -0.4284302592277527,
                -1.2478244304656982,
                -1.2046120166778564,
                -0.7993237972259521,
                -0.7876272201538086,
                -0.8728057742118835,
                -1.0386537313461304,
                -1.7460253238677979,
                -1.2595839500427246,
                -1.895067572593689,
                -1.067859411239624,
                -0.7589157819747925,
                -1.507511019706726,
                -0.7474846243858337,
                -1.921128749847412,
                -1.1518497467041016,
                -1.2847715616226196,
                -1.1093006134033203,
                -1.5194387435913086,
                -0.7080225944519043,
                -1.036508321762085,
                -1.1113170385360718,
                -1.418999433517456,
                -0.7125160694122314,
                -0.8453664779663086,
                -1.4655687808990479,
                -0.9556126594543457,
                -1.2970386743545532,
                -1.0670559406280518,
                -0.6058178544044495,
                -0.47313642501831055,
                -1.9048526287078857,
                -1.8065037727355957,
                -1.5089869499206543,
                -0.8981711864471436,
                -0.8271474838256836,
                -0.3774081766605377,
                -1.2192909717559814,
                -0.7616965770721436,
                -1.245229959487915,
                -0.9341375231742859,
                -0.8024587631225586,
                -0.8727879524230957,
                -0.8752062320709229,
                -1.410207986831665,
                -0.8883167505264282,
                -1.0984792709350586,
                -1.7097352743148804,
                -0.5180756449699402,
                -0.6974567174911499,
                -1.0703939199447632,
                -0.7577903270721436,
                -2.1867332458496094,
                -1.40264892578125,
                -1.9950283765792847,
                -0.1690831035375595,
                -0.6002581119537354,
                -0.5011393427848816,
                -0.8655229210853577,
                -0.43385961651802063,
                -2.333695888519287
              ],
              "last_token_top_experts": [
                29,
                59,
                32,
                16,
                62
              ],
              "last_token_top_weights": [
                1.0,
                0.94873046875,
                0.6552734375,
                0.32373046875,
                0.314208984375
              ],
              "routing_entropy": 4.0675482749938965
            },
            "model.layers.9.mlp.gate": {
              "num_experts": 64,
              "expert_usage": [
                0.022727273404598236,
                0.0037878789007663727,
                0.01515151560306549,
                0.03787878900766373,
                0.007575757801532745,
                0.007575757801532745,
                0.018939394503831863,
                0.011363636702299118,
                0.022727273404598236,
                0.0,
                0.011363636702299118,
                0.02651515230536461,
                0.0416666679084301,
                0.03787878900766373,
                0.007575757801532745,
                0.06439393758773804,
                0.018939394503831863,
                0.018939394503831863,
                0.022727273404598236,
                0.01515151560306549,
                0.018939394503831863,
                0.02651515230536461,
                0.02651515230536461,
                0.01515151560306549,
                0.01515151560306549,
                0.03030303120613098,
                0.0,
                0.007575757801532745,
                0.0037878789007663727,
                0.018939394503831863,
                0.0037878789007663727,
                0.007575757801532745,
                0.011363636702299118,
                0.011363636702299118,
                0.0416666679084301,
                0.007575757801532745,
                0.011363636702299118,
                0.011363636702299118,
                0.01515151560306549,
                0.03787878900766373,
                0.007575757801532745,
                0.007575757801532745,
                0.03030303120613098,
                0.0,
                0.0,
                0.011363636702299118,
                0.0037878789007663727,
                0.02651515230536461,
                0.0037878789007663727,
                0.011363636702299118,
                0.0037878789007663727,
                0.007575757801532745,
                0.007575757801532745,
                0.007575757801532745,
                0.0037878789007663727,
                0.018939394503831863,
                0.03030303120613098,
                0.011363636702299118,
                0.0037878789007663727,
                0.01515151560306549,
                0.007575757801532745,
                0.01515151560306549,
                0.022727273404598236,
                0.007575757801532745
              ],
              "mean_weights": [
                -2.348107099533081,
                -1.1553280353546143,
                -1.763623833656311,
                -1.3299500942230225,
                -0.6679511666297913,
                -1.0751805305480957,
                -0.8258204460144043,
                -0.9437292814254761,
                -0.5380563735961914,
                -1.081009864807129,
                -1.6000051498413086,
                -0.7793745398521423,
                -0.4987959563732147,
                -1.7844922542572021,
                -1.1797059774398804,
                -0.3882806897163391,
                -2.0245509147644043,
                -1.2081876993179321,
                -1.0593382120132446,
                -0.8814229965209961,
                -0.8628873229026794,
                -1.82391357421875,
                -1.3376280069351196,
                -1.8596552610397339,
                -0.6806223392486572,
                -1.3527534008026123,
                -1.5654093027114868,
                -1.5399465560913086,
                -2.157522439956665,
                -1.7093764543533325,
                -1.350290060043335,
                -1.1131985187530518,
                -1.7861300706863403,
                -1.200700283050537,
                -0.4442536234855652,
                -1.45159912109375,
                -1.466446876525879,
                -2.5306692123413086,
                -1.2798353433609009,
                -0.5538339614868164,
                -1.0120517015457153,
                -1.4596058130264282,
                -1.5912013053894043,
                -1.6051431894302368,
                -1.396772861480713,
                -1.7068870067596436,
                -0.7133049368858337,
                -1.100002408027649,
                -2.1285014152526855,
                -1.3828531503677368,
                -1.1804816722869873,
                -0.714170515537262,
                -1.1647282838821411,
                -1.8060932159423828,
                -1.0646084547042847,
                -2.3741750717163086,
                -1.3560994863510132,
                -1.0542149543762207,
                -2.013376474380493,
                -1.6558407545089722,
                -0.867246687412262,
                -1.0695689916610718,
                -0.9785627722740173,
                -1.5228012800216675
              ],
              "last_token_top_experts": [
                34,
                12,
                13,
                8,
                39
              ],
              "last_token_top_weights": [
                1.716796875,
                1.2294921875,
                0.9111328125,
                0.7978515625,
                0.75537109375
              ],
              "routing_entropy": 4.0521955490112305
            },
            "model.layers.10.mlp.gate": {
              "num_experts": 64,
              "expert_usage": [
                0.011363636702299118,
                0.011363636702299118,
                0.011363636702299118,
                0.0037878789007663727,
                0.022727273404598236,
                0.0037878789007663727,
                0.0416666679084301,
                0.01515151560306549,
                0.022727273404598236,
                0.01515151560306549,
                0.022727273404598236,
                0.0037878789007663727,
                0.01515151560306549,
                0.0,
                0.007575757801532745,
                0.018939394503831863,
                0.0,
                0.01515151560306549,
                0.007575757801532745,
                0.0,
                0.01515151560306549,
                0.02651515230536461,
                0.0416666679084301,
                0.0037878789007663727,
                0.0,
                0.05681818351149559,
                0.018939394503831863,
                0.03030303120613098,
                0.007575757801532745,
                0.018939394503831863,
                0.03030303120613098,
                0.007575757801532745,
                0.018939394503831863,
                0.03030303120613098,
                0.01515151560306549,
                0.011363636702299118,
                0.007575757801532745,
                0.018939394503831863,
                0.022727273404598236,
                0.007575757801532745,
                0.0037878789007663727,
                0.0,
                0.018939394503831863,
                0.03030303120613098,
                0.034090910106897354,
                0.01515151560306549,
                0.02651515230536461,
                0.01515151560306549,
                0.007575757801532745,
                0.007575757801532745,
                0.0,
                0.034090910106897354,
                0.018939394503831863,
                0.01515151560306549,
                0.0037878789007663727,
                0.007575757801532745,
                0.007575757801532745,
                0.0037878789007663727,
                0.0037878789007663727,
                0.034090910106897354,
                0.01515151560306549,
                0.01515151560306549,
                0.011363636702299118,
                0.03030303120613098
              ],
              "mean_weights": [
                -1.9677244424819946,
                -2.1609275341033936,
                -2.1136512756347656,
                -1.557565450668335,
                -0.5943767428398132,
                -1.2268954515457153,
                -1.1489858627319336,
                -1.9845789670944214,
                -1.2555872201919556,
                -1.7588038444519043,
                -2.1128604412078857,
                -0.7507398128509521,
                -1.682970404624939,
                -1.2534770965576172,
                -1.7985618114471436,
                -1.2530943155288696,
                -1.7461085319519043,
                -2.8042104244232178,
                -1.025068759918213,
                -0.8763612508773804,
                -0.9113187193870544,
                -1.311309814453125,
                -0.7461598515510559,
                -1.8215388059616089,
                -2.2759270668029785,
                -0.7795288562774658,
                -1.2776602506637573,
                -1.5890096426010132,
                -1.8930885791778564,
                -1.0218838453292847,
                -2.0652928352355957,
                -2.33418869972229,
                -2.4112050533294678,
                -1.7718178033828735,
                -1.0249180793762207,
                -1.1955899000167847,
                -1.9817560911178589,
                -2.748997926712036,
                -2.07188081741333,
                -1.4459376335144043,
                -1.6295498609542847,
                -1.7609937191009521,
                -1.6964328289031982,
                -1.0474728345870972,
                -0.9253882169723511,
                -1.3714284896850586,
                -0.9817467927932739,
                -1.8791393041610718,
                -1.1674785614013672,
                -1.052351474761963,
                -1.3207859992980957,
                -1.729200005531311,
                -2.2913780212402344,
                -1.7715250253677368,
                -1.9580004215240479,
                -1.0696614980697632,
                -0.9287543892860413,
                -0.8609285950660706,
                -1.3160622119903564,
                -1.4958375692367554,
                -1.1447328329086304,
                -1.2398885488510132,
                -1.3657078742980957,
                -1.5876474380493164
              ],
              "last_token_top_experts": [
                6,
                30,
                43,
                38,
                12
              ],
              "last_token_top_weights": [
                1.07421875,
                0.7236328125,
                0.501953125,
                0.50048828125,
                0.10797119140625
              ],
              "routing_entropy": 4.0498175621032715
            },
            "model.layers.11.mlp.gate": {
              "num_experts": 64,
              "expert_usage": [
                0.01515151560306549,
                0.0037878789007663727,
                0.0037878789007663727,
                0.022727273404598236,
                0.011363636702299118,
                0.007575757801532745,
                0.0,
                0.018939394503831863,
                0.018939394503831863,
                0.007575757801532745,
                0.018939394503831863,
                0.007575757801532745,
                0.007575757801532745,
                0.011363636702299118,
                0.011363636702299118,
                0.011363636702299118,
                0.022727273404598236,
                0.011363636702299118,
                0.007575757801532745,
                0.034090910106897354,
                0.01515151560306549,
                0.034090910106897354,
                0.018939394503831863,
                0.007575757801532745,
                0.022727273404598236,
                0.007575757801532745,
                0.02651515230536461,
                0.0037878789007663727,
                0.0,
                0.018939394503831863,
                0.018939394503831863,
                0.018939394503831863,
                0.0,
                0.03030303120613098,
                0.01515151560306549,
                0.022727273404598236,
                0.03030303120613098,
                0.018939394503831863,
                0.034090910106897354,
                0.02651515230536461,
                0.01515151560306549,
                0.0037878789007663727,
                0.022727273404598236,
                0.0037878789007663727,
                0.022727273404598236,
                0.0037878789007663727,
                0.0037878789007663727,
                0.0037878789007663727,
                0.0037878789007663727,
                0.022727273404598236,
                0.0,
                0.03030303120613098,
                0.02651515230536461,
                0.02651515230536461,
                0.011363636702299118,
                0.011363636702299118,
                0.02651515230536461,
                0.0,
                0.018939394503831863,
                0.0,
                0.03030303120613098,
                0.01515151560306549,
                0.0037878789007663727,
                0.06818182021379471
              ],
              "mean_weights": [
                -2.1387569904327393,
                -1.444217562675476,
                -1.3284653425216675,
                -1.7544629573822021,
                -1.4442989826202393,
                -1.1978130340576172,
                -1.833052158355713,
                -1.067517876625061,
                -2.238133192062378,
                -1.5203524827957153,
                -1.2136168479919434,
                -1.7438945770263672,
                -1.1616877317428589,
                -1.020552158355713,
                -0.9428932666778564,
                -2.7496376037597656,
                -1.537227749824524,
                -2.305849075317383,
                -2.292750120162964,
                -1.5646328926086426,
                -2.025277853012085,
                -1.961501121520996,
                -2.1417124271392822,
                -1.1693929433822632,
                -1.5446962118148804,
                -1.3471310138702393,
                -1.5198650360107422,
                -1.040117621421814,
                -1.4561878442764282,
                -1.1528615951538086,
                -2.0856194496154785,
                -2.2160496711730957,
                -1.7608309984207153,
                -1.9000133275985718,
                -2.5966174602508545,
                -1.666338324546814,
                -1.838456630706787,
                -1.2032138109207153,
                -0.7732192277908325,
                -1.4475269317626953,
                -0.9948286414146423,
                -1.358694314956665,
                -2.085667371749878,
                -1.7893325090408325,
                -1.5970773696899414,
                -2.145848035812378,
                -1.4098714590072632,
                -1.2789195775985718,
                -1.3634587526321411,
                -2.0300636291503906,
                -1.9284001588821411,
                -1.1328257322311401,
                -1.4596872329711914,
                -1.331831455230713,
                -2.4290733337402344,
                -1.922414779663086,
                -1.7967344522476196,
                -1.817501187324524,
                -2.8775274753570557,
                -1.2663869857788086,
                -1.4962185621261597,
                -2.199951171875,
                -1.355150580406189,
                -0.6489054560661316
              ],
              "last_token_top_experts": [
                52,
                44,
                22,
                56,
                33
              ],
              "last_token_top_weights": [
                1.0869140625,
                0.91455078125,
                0.79541015625,
                0.560546875,
                0.496826171875
              ],
              "routing_entropy": 4.060474872589111
            },
            "model.layers.12.mlp.gate": {
              "num_experts": 64,
              "expert_usage": [
                0.018939394503831863,
                0.02651515230536461,
                0.007575757801532745,
                0.0037878789007663727,
                0.011363636702299118,
                0.0416666679084301,
                0.034090910106897354,
                0.01515151560306549,
                0.01515151560306549,
                0.02651515230536461,
                0.018939394503831863,
                0.007575757801532745,
                0.011363636702299118,
                0.018939394503831863,
                0.022727273404598236,
                0.022727273404598236,
                0.02651515230536461,
                0.007575757801532745,
                0.0037878789007663727,
                0.0,
                0.0037878789007663727,
                0.01515151560306549,
                0.022727273404598236,
                0.02651515230536461,
                0.007575757801532745,
                0.022727273404598236,
                0.01515151560306549,
                0.018939394503831863,
                0.007575757801532745,
                0.01515151560306549,
                0.018939394503831863,
                0.0037878789007663727,
                0.034090910106897354,
                0.018939394503831863,
                0.011363636702299118,
                0.0037878789007663727,
                0.0416666679084301,
                0.0037878789007663727,
                0.01515151560306549,
                0.01515151560306549,
                0.0,
                0.007575757801532745,
                0.0037878789007663727,
                0.007575757801532745,
                0.007575757801532745,
                0.01515151560306549,
                0.018939394503831863,
                0.0,
                0.007575757801532745,
                0.034090910106897354,
                0.01515151560306549,
                0.011363636702299118,
                0.018939394503831863,
                0.022727273404598236,
                0.03030303120613098,
                0.0037878789007663727,
                0.0037878789007663727,
                0.011363636702299118,
                0.03030303120613098,
                0.022727273404598236,
                0.01515151560306549,
                0.0416666679084301,
                0.007575757801532745,
                0.0
              ],
              "mean_weights": [
                -2.074368476867676,
                -1.7055386304855347,
                -1.5178000926971436,
                -1.9548709392547607,
                -1.9036310911178589,
                -1.390651822090149,
                -2.093742609024048,
                -2.2553932666778564,
                -1.090824007987976,
                -2.112553358078003,
                -1.6225364208221436,
                -1.6303341388702393,
                -1.4179983139038086,
                -1.468679666519165,
                -2.6638410091400146,
                -2.0172600746154785,
                -1.681936502456665,
                -1.716108798980713,
                -1.5934504270553589,
                -2.1954307556152344,
                -1.4221560955047607,
                -2.121415615081787,
                -2.132608652114868,
                -0.9893253445625305,
                -1.5167837142944336,
                -1.6185989379882812,
                -1.4096202850341797,
                -1.6449658870697021,
                -1.7109291553497314,
                -1.5447665452957153,
                -1.4310802221298218,
                -1.527029275894165,
                -1.223541259765625,
                -1.6345751285552979,
                -2.4736289978027344,
                -1.8403615951538086,
                -1.153154730796814,
                -1.6867897510528564,
                -1.0229469537734985,
                -1.5297999382019043,
                -1.9053030014038086,
                -1.9112844467163086,
                -1.572750210762024,
                -1.1609553098678589,
                -1.4208836555480957,
                -1.3310546875,
                -2.743415594100952,
                -1.7306314706802368,
                -2.6385536193847656,
                -1.8902440071105957,
                -3.02854585647583,
                -1.720902919769287,
                -2.592311143875122,
                -2.0643792152404785,
                -2.1583921909332275,
                -1.7035096883773804,
                -1.773629903793335,
                -1.4752603769302368,
                -1.444898247718811,
                -1.518750786781311,
                -1.397264838218689,
                -1.5597172975540161,
                -2.0089786052703857,
                -1.759084939956665
              ],
              "last_token_top_experts": [
                58,
                6,
                9,
                54,
                15
              ],
              "last_token_top_weights": [
                1.087890625,
                0.83837890625,
                0.705078125,
                0.6416015625,
                0.4130859375
              ],
              "routing_entropy": 4.087329864501953
            },
            "model.layers.13.mlp.gate": {
              "num_experts": 64,
              "expert_usage": [
                0.01515151560306549,
                0.02651515230536461,
                0.022727273404598236,
                0.03030303120613098,
                0.007575757801532745,
                0.034090910106897354,
                0.01515151560306549,
                0.0037878789007663727,
                0.022727273404598236,
                0.034090910106897354,
                0.011363636702299118,
                0.05303030461072922,
                0.02651515230536461,
                0.01515151560306549,
                0.03787878900766373,
                0.011363636702299118,
                0.007575757801532745,
                0.0,
                0.007575757801532745,
                0.0,
                0.0,
                0.007575757801532745,
                0.011363636702299118,
                0.0037878789007663727,
                0.011363636702299118,
                0.01515151560306549,
                0.02651515230536461,
                0.0,
                0.007575757801532745,
                0.0037878789007663727,
                0.01515151560306549,
                0.018939394503831863,
                0.0,
                0.022727273404598236,
                0.022727273404598236,
                0.01515151560306549,
                0.01515151560306549,
                0.03030303120613098,
                0.01515151560306549,
                0.011363636702299118,
                0.022727273404598236,
                0.022727273404598236,
                0.011363636702299118,
                0.007575757801532745,
                0.01515151560306549,
                0.011363636702299118,
                0.0037878789007663727,
                0.04545454680919647,
                0.0037878789007663727,
                0.022727273404598236,
                0.022727273404598236,
                0.018939394503831863,
                0.0,
                0.0037878789007663727,
                0.02651515230536461,
                0.02651515230536461,
                0.0037878789007663727,
                0.007575757801532745,
                0.03030303120613098,
                0.01515151560306549,
                0.02651515230536461,
                0.007575757801532745,
                0.007575757801532745,
                0.0
              ],
              "mean_weights": [
                -2.1956732273101807,
                -2.5672035217285156,
                -1.4440550804138184,
                -2.2221181392669678,
                -1.7741329669952393,
                -1.8876731395721436,
                -1.2122783660888672,
                -1.5948892831802368,
                -2.8127222061157227,
                -1.2923890352249146,
                -1.9825106859207153,
                -1.026641845703125,
                -2.1418826580047607,
                -1.6886355876922607,
                -1.5544544458389282,
                -2.498446464538574,
                -1.2381850481033325,
                -1.961499810218811,
                -1.6987009048461914,
                -2.0943121910095215,
                -1.9234434366226196,
                -1.5259455442428589,
                -2.9971072673797607,
                -1.9666489362716675,
                -2.1993889808654785,
                -1.2947196960449219,
                -1.46148681640625,
                -2.0935723781585693,
                -1.8364553451538086,
                -1.867305874824524,
                -2.5656700134277344,
                -2.2639048099517822,
                -2.3289387226104736,
                -2.4337823390960693,
                -2.5450551509857178,
                -2.2387807369232178,
                -3.252800226211548,
                -2.092100143432617,
                -2.0606560707092285,
                -1.971724033355713,
                -1.88150954246521,
                -2.7758567333221436,
                -1.5513731241226196,
                -1.875166416168213,
                -1.6126339435577393,
                -2.17030668258667,
                -1.970629096031189,
                -1.0485974550247192,
                -2.577244520187378,
                -1.9602651596069336,
                -1.669613003730774,
                -1.6070002317428589,
                -2.249763250350952,
                -1.6975764036178589,
                -2.295707941055298,
                -1.6809748411178589,
                -2.2706780433654785,
                -2.6936848163604736,
                -2.0845680236816406,
                -1.4994895458221436,
                -1.2423206567764282,
                -1.660518765449524,
                -1.7797898054122925,
                -2.1291725635528564
              ],
              "last_token_top_experts": [
                47,
                54,
                9,
                14,
                3
              ],
              "last_token_top_weights": [
                -0.00371551513671875,
                -0.03277587890625,
                -0.311279296875,
                -0.357666015625,
                -0.3759765625
              ],
              "routing_entropy": 4.059387683868408
            },
            "model.layers.14.mlp.gate": {
              "num_experts": 64,
              "expert_usage": [
                0.02651515230536461,
                0.0037878789007663727,
                0.018939394503831863,
                0.01515151560306549,
                0.03030303120613098,
                0.0,
                0.01515151560306549,
                0.011363636702299118,
                0.0,
                0.03030303120613098,
                0.022727273404598236,
                0.034090910106897354,
                0.022727273404598236,
                0.0037878789007663727,
                0.0,
                0.011363636702299118,
                0.022727273404598236,
                0.007575757801532745,
                0.022727273404598236,
                0.007575757801532745,
                0.007575757801532745,
                0.018939394503831863,
                0.022727273404598236,
                0.011363636702299118,
                0.007575757801532745,
                0.05303030461072922,
                0.0,
                0.011363636702299118,
                0.049242425709962845,
                0.0037878789007663727,
                0.018939394503831863,
                0.02651515230536461,
                0.011363636702299118,
                0.0,
                0.022727273404598236,
                0.01515151560306549,
                0.011363636702299118,
                0.0037878789007663727,
                0.01515151560306549,
                0.007575757801532745,
                0.007575757801532745,
                0.022727273404598236,
                0.034090910106897354,
                0.0,
                0.018939394503831863,
                0.022727273404598236,
                0.03030303120613098,
                0.007575757801532745,
                0.01515151560306549,
                0.007575757801532745,
                0.011363636702299118,
                0.03787878900766373,
                0.0,
                0.01515151560306549,
                0.007575757801532745,
                0.007575757801532745,
                0.022727273404598236,
                0.011363636702299118,
                0.01515151560306549,
                0.0416666679084301,
                0.034090910106897354,
                0.0037878789007663727,
                0.0,
                0.0
              ],
              "mean_weights": [
                -2.325326681137085,
                -1.7724757194519043,
                -1.9870309829711914,
                -2.1721487045288086,
                -1.3425838947296143,
                -2.305723190307617,
                -1.3768014907836914,
                -2.1796653270721436,
                -1.5683445930480957,
                -2.635241985321045,
                -2.353710651397705,
                -2.580904960632324,
                -1.874007225036621,
                -1.5688180923461914,
                -2.4937262535095215,
                -3.128706455230713,
                -2.386563301086426,
                -2.264559745788574,
                -2.6879069805145264,
                -1.9303385019302368,
                -2.9342079162597656,
                -2.26914644241333,
                -1.483446478843689,
                -2.13242769241333,
                -1.521924614906311,
                -1.482547640800476,
                -1.9820667505264282,
                -1.8195246458053589,
                -1.256507158279419,
                -1.9252338409423828,
                -1.4853589534759521,
                -2.3472914695739746,
                -2.247831344604492,
                -1.6184008121490479,
                -2.370265245437622,
                -1.9404518604278564,
                -1.379957675933838,
                -2.4899237155914307,
                -2.9353582859039307,
                -2.080374002456665,
                -1.9403408765792847,
                -2.5006158351898193,
                -2.526235818862915,
                -2.487053155899048,
                -3.1612067222595215,
                -2.1987664699554443,
                -2.4687092304229736,
                -2.074925184249878,
                -2.5982179641723633,
                -2.9092535972595215,
                -2.4030873775482178,
                -1.8838825225830078,
                -1.973588466644287,
                -2.662869453430176,
                -1.9648973941802979,
                -2.130850076675415,
                -1.674862027168274,
                -2.254150390625,
                -1.6687602996826172,
                -1.6308315992355347,
                -2.253835916519165,
                -1.894975185394287,
                -2.00087308883667,
                -3.667524814605713
              ],
              "last_token_top_experts": [
                42,
                60,
                11,
                45,
                51
              ],
              "last_token_top_weights": [
                0.289306640625,
                0.2353515625,
                0.2196044921875,
                0.035614013671875,
                -0.2052001953125
              ],
              "routing_entropy": 4.0562968254089355
            },
            "model.layers.15.mlp.gate": {
              "num_experts": 64,
              "expert_usage": [
                0.01515151560306549,
                0.011363636702299118,
                0.01515151560306549,
                0.02651515230536461,
                0.03787878900766373,
                0.0037878789007663727,
                0.007575757801532745,
                0.02651515230536461,
                0.011363636702299118,
                0.011363636702299118,
                0.034090910106897354,
                0.01515151560306549,
                0.018939394503831863,
                0.034090910106897354,
                0.049242425709962845,
                0.03030303120613098,
                0.0,
                0.0,
                0.0037878789007663727,
                0.0,
                0.01515151560306549,
                0.018939394503831863,
                0.018939394503831863,
                0.022727273404598236,
                0.034090910106897354,
                0.01515151560306549,
                0.011363636702299118,
                0.0416666679084301,
                0.011363636702299118,
                0.011363636702299118,
                0.03030303120613098,
                0.01515151560306549,
                0.0037878789007663727,
                0.0,
                0.02651515230536461,
                0.0037878789007663727,
                0.011363636702299118,
                0.007575757801532745,
                0.011363636702299118,
                0.007575757801532745,
                0.01515151560306549,
                0.011363636702299118,
                0.0,
                0.01515151560306549,
                0.0037878789007663727,
                0.0037878789007663727,
                0.02651515230536461,
                0.018939394503831863,
                0.0,
                0.0,
                0.022727273404598236,
                0.0,
                0.03030303120613098,
                0.0,
                0.007575757801532745,
                0.01515151560306549,
                0.018939394503831863,
                0.007575757801532745,
                0.034090910106897354,
                0.01515151560306549,
                0.02651515230536461,
                0.011363636702299118,
                0.03030303120613098,
                0.01515151560306549
              ],
              "mean_weights": [
                -1.610965609550476,
                -1.861934781074524,
                -2.602384090423584,
                -1.505056619644165,
                -1.414150357246399,
                -2.2113149166107178,
                -1.6224254369735718,
                -2.600759744644165,
                -1.2793523073196411,
                -1.3728693723678589,
                -2.1940696239471436,
                -1.8367290496826172,
                -1.3649235963821411,
                -2.1560683250427246,
                -1.378976583480835,
                -2.1899192333221436,
                -1.7285747528076172,
                -1.577562689781189,
                -1.445993185043335,
                -2.1781487464904785,
                -2.118408203125,
                -2.821254014968872,
                -1.5960712432861328,
                -2.352562665939331,
                -0.9990678429603577,
                -1.772534966468811,
                -1.9622987508773804,
                -1.4112224578857422,
                -1.787858247756958,
                -1.3388597965240479,
                -1.1272786855697632,
                -1.7385753393173218,
                -1.9290217161178589,
                -2.2080373764038086,
                -1.245657205581665,
                -1.8156368732452393,
                -2.073390245437622,
                -1.6555730104446411,
                -1.5846279859542847,
                -1.6330270767211914,
                -1.8957149982452393,
                -2.084526300430298,
                -2.087062120437622,
                -1.9768455028533936,
                -1.8269662857055664,
                -2.270921230316162,
                -2.332273483276367,
                -2.0660529136657715,
                -2.2484242916107178,
                -2.1029977798461914,
                -1.6032363176345825,
                -2.0130059719085693,
                -1.2277147769927979,
                -1.8767904043197632,
                -2.8742713928222656,
                -2.8847453594207764,
                -2.5529212951660156,
                -1.6329752206802368,
                -2.057868719100952,
                -1.2709294557571411,
                -2.130448818206787,
                -2.761168956756592,
                -2.138644218444824,
                -1.9631366729736328
              ],
              "last_token_top_experts": [
                52,
                58,
                60,
                12,
                34
              ],
              "last_token_top_weights": [
                0.56494140625,
                0.328125,
                0.1591796875,
                -0.0338134765625,
                -0.256103515625
              ],
              "routing_entropy": 4.07148551940918
            }
          }
        },
        "handled": {
          "tokens": 55,
          "layers": {
            "model.layers.0.mlp.gate": {
              "num_experts": 64,
              "expert_usage": [
                0.052272725850343704,
                0.015909090638160706,
                0.00909090880304575,
                0.006818181835114956,
                0.00909090880304575,
                0.004545454401522875,
                0.0886363610625267,
                0.013636363670229912,
                0.020454544574022293,
                0.0,
                0.004545454401522875,
                0.015909090638160706,
                0.006818181835114956,
                0.00909090880304575,
                0.00909090880304575,
                0.022727273404598236,
                0.0181818176060915,
                0.015909090638160706,
                0.006818181835114956,
                0.004545454401522875,
                0.013636363670229912,
                0.07727272808551788,
                0.015909090638160706,
                0.013636363670229912,
                0.03181818127632141,
                0.0022727272007614374,
                0.0022727272007614374,
                0.006818181835114956,
                0.0,
                0.0022727272007614374,
                0.011363636702299118,
                0.011363636702299118,
                0.0022727272007614374,
                0.022727273404598236,
                0.011363636702299118,
                0.013636363670229912,
                0.022727273404598236,
                0.013636363670229912,
                0.004545454401522875,
                0.022727273404598236,
                0.020454544574022293,
                0.04772727191448212,
                0.0022727272007614374,
                0.00909090880304575,
                0.013636363670229912,
                0.004545454401522875,
                0.004545454401522875,
                0.020454544574022293,
                0.00909090880304575,
                0.006818181835114956,
                0.015909090638160706,
                0.011363636702299118,
                0.022727273404598236,
                0.0181818176060915,
                0.011363636702299118,
                0.00909090880304575,
                0.006818181835114956,
                0.00909090880304575,
                0.0022727272007614374,
                0.022727273404598236,
                0.029545454308390617,
                0.006818181835114956,
                0.020454544574022293,
                0.03863636404275894
              ],
              "mean_weights": [
                -0.4447265565395355,
                -0.5402387976646423,
                -0.46703991293907166,
                -0.6198552846908569,
                -0.788788378238678,
                -0.8424227833747864,
                0.2854309380054474,
                -1.1420725584030151,
                -0.5840193033218384,
                -1.9939919710159302,
                -0.5804557204246521,
                -0.571122407913208,
                -2.3994009494781494,
                -0.9963400959968567,
                -0.5658122897148132,
                -0.4742831885814667,
                -0.7779709696769714,
                -0.7835049629211426,
                -0.9196877479553223,
                -1.3934980630874634,
                -1.4983798265457153,
                0.22270014882087708,
                -1.1743059158325195,
                -0.518102765083313,
                -0.4007590413093567,
                -0.5985873341560364,
                -0.7067460417747498,
                -0.3502647280693054,
                -1.3790494203567505,
                -0.6295604109764099,
                -0.5709478259086609,
                -0.6357671618461609,
                -0.6779862642288208,
                -0.653594434261322,
                -0.6528858542442322,
                -0.5960560441017151,
                -0.5641351938247681,
                -0.4785584807395935,
                -0.7955511212348938,
                -0.8803023099899292,
                -0.6509588360786438,
                -1.018354892730713,
                -0.7029091715812683,
                -1.229814887046814,
                -0.5419797301292419,
                -0.8036489486694336,
                -1.14422607421875,
                -0.29404741525650024,
                -0.69091796875,
                -0.6912826299667358,
                -0.4485068619251251,
                -0.7923089861869812,
                -0.3928624987602234,
                -0.7090853452682495,
                -0.544326663017273,
                -0.5495441555976868,
                -0.6398945450782776,
                -1.2377986907958984,
                -2.2353403568267822,
                -0.4043995141983032,
                -0.5619468092918396,
                -0.7223255634307861,
                -0.38856589794158936,
                -0.4272330403327942
              ],
              "last_token_top_experts": [
                50,
                17,
                24,
                47,
                16
              ],
              "last_token_top_weights": [
                0.96728515625,
                0.77392578125,
                0.6328125,
                0.56787109375,
                0.49267578125
              ],
              "routing_entropy": 4.084884166717529
            },
            "model.layers.1.mlp.gate": {
              "num_experts": 64,
              "expert_usage": [
                0.00909090880304575,
                0.015909090638160706,
                0.0181818176060915,
                0.013636363670229912,
                0.011363636702299118,
                0.00909090880304575,
                0.0,
                0.034090910106897354,
                0.006818181835114956,
                0.0022727272007614374,
                0.0022727272007614374,
                0.015909090638160706,
                0.02500000037252903,
                0.015909090638160706,
                0.00909090880304575,
                0.05000000074505806,
                0.013636363670229912,
                0.004545454401522875,
                0.036363635212183,
                0.00909090880304575,
                0.015909090638160706,
                0.034090910106897354,
                0.013636363670229912,
                0.027272727340459824,
                0.011363636702299118,
                0.10000000149011612,
                0.006818181835114956,
                0.020454544574022293,
                0.013636363670229912,
                0.029545454308390617,
                0.013636363670229912,
                0.011363636702299118,
                0.011363636702299118,
                0.004545454401522875,
                0.004545454401522875,
                0.00909090880304575,
                0.006818181835114956,
                0.006818181835114956,
                0.00909090880304575,
                0.011363636702299118,
                0.020454544574022293,
                0.006818181835114956,
                0.00909090880304575,
                0.0,
                0.006818181835114956,
                0.015909090638160706,
                0.0022727272007614374,
                0.06136363744735718,
                0.00909090880304575,
                0.022727273404598236,
                0.020454544574022293,
                0.015909090638160706,
                0.00909090880304575,
                0.004545454401522875,
                0.0181818176060915,
                0.00909090880304575,
                0.004545454401522875,
                0.006818181835114956,
                0.020454544574022293,
                0.0181818176060915,
                0.020454544574022293,
                0.0022727272007614374,
                0.0181818176060915,
                0.013636363670229912
              ],
              "mean_weights": [
                -0.4714987874031067,
                -0.754706084728241,
                -0.7749727964401245,
                -0.4583107829093933,
                -0.6098555326461792,
                -0.9493613243103027,
                -0.7507501840591431,
                -0.48574885725975037,
                -0.7697809338569641,
                -0.6649147868156433,
                -0.8006458878517151,
                -0.5986230969429016,
                -0.562615156173706,
                -0.6651234030723572,
                -0.6199634671211243,
                -0.20429062843322754,
                -0.4884055256843567,
                -0.6562766432762146,
                -0.27119433879852295,
                -0.8230715394020081,
                -0.5109519362449646,
                -0.500927746295929,
                -0.46207886934280396,
                -0.4485529065132141,
                -0.5557928085327148,
                0.2856457233428955,
                -0.6080644130706787,
                -0.5796852707862854,
                -0.5659717917442322,
                -0.6456878781318665,
                -0.5703824162483215,
                -0.5149816274642944,
                -0.8107728362083435,
                -0.7451215982437134,
                -0.6559115052223206,
                -1.2005088329315186,
                -0.5778009295463562,
                -1.2108708620071411,
                -0.6661343574523926,
                -0.6022616028785706,
                -0.8286307454109192,
                -0.7959983348846436,
                -0.6664226055145264,
                -0.7840065956115723,
                -0.6525781750679016,
                -0.7527203559875488,
                -0.6907004714012146,
                -0.185546875,
                -0.6154435873031616,
                -0.4805920720100403,
                -0.6147982478141785,
                -0.6248973608016968,
                -0.4915943741798401,
                -0.7983853220939636,
                -0.6256147623062134,
                -0.6068336963653564,
                -0.6986583471298218,
                -0.5866643786430359,
                -0.49142900109291077,
                -0.8532071113586426,
                -0.7136557698249817,
                -0.4983537197113037,
                -0.8653916716575623,
                -0.6652489304542542
              ],
              "last_token_top_experts": [
                29,
                7,
                13,
                20,
                25
              ],
              "last_token_top_weights": [
                1.076171875,
                0.57666015625,
                0.51123046875,
                0.06695556640625,
                0.006961822509765625
              ],
              "routing_entropy": 4.132450103759766
            },
            "model.layers.2.mlp.gate": {
              "num_experts": 64,
              "expert_usage": [
                0.011363636702299118,
                0.015909090638160706,
                0.0022727272007614374,
                0.013636363670229912,
                0.022727273404598236,
                0.072727270424366,
                0.029545454308390617,
                0.011363636702299118,
                0.00909090880304575,
                0.02500000037252903,
                0.004545454401522875,
                0.013636363670229912,
                0.0022727272007614374,
                0.0181818176060915,
                0.029545454308390617,
                0.027272727340459824,
                0.006818181835114956,
                0.011363636702299118,
                0.03181818127632141,
                0.0022727272007614374,
                0.015909090638160706,
                0.011363636702299118,
                0.027272727340459824,
                0.013636363670229912,
                0.02500000037252903,
                0.020454544574022293,
                0.006818181835114956,
                0.013636363670229912,
                0.004545454401522875,
                0.013636363670229912,
                0.013636363670229912,
                0.0,
                0.0022727272007614374,
                0.00909090880304575,
                0.004545454401522875,
                0.03181818127632141,
                0.015909090638160706,
                0.011363636702299118,
                0.0022727272007614374,
                0.004545454401522875,
                0.11136363446712494,
                0.011363636702299118,
                0.0,
                0.0,
                0.00909090880304575,
                0.0181818176060915,
                0.006818181835114956,
                0.011363636702299118,
                0.006818181835114956,
                0.0022727272007614374,
                0.013636363670229912,
                0.00909090880304575,
                0.013636363670229912,
                0.015909090638160706,
                0.03181818127632141,
                0.0,
                0.013636363670229912,
                0.004545454401522875,
                0.00909090880304575,
                0.004545454401522875,
                0.03181818127632141,
                0.00909090880304575,
                0.020454544574022293,
                0.036363635212183
              ],
              "mean_weights": [
                -0.6169716715812683,
                -0.8595370054244995,
                -0.6917258501052856,
                -0.6838645339012146,
                -0.7208490371704102,
                0.19763128459453583,
                -0.35443115234375,
                -0.48348376154899597,
                -0.5807639360427856,
                -0.45526787638664246,
                -0.6253678798675537,
                -0.48112571239471436,
                -0.6627642512321472,
                -0.524988055229187,
                -0.3755720555782318,
                -0.3780245780944824,
                -0.6025135517120361,
                -0.5410067439079285,
                -0.24117431044578552,
                -0.7302923202514648,
                -0.8261027932167053,
                -0.5198144912719727,
                -0.8458418250083923,
                -0.8685391545295715,
                -0.4189293682575226,
                -0.5167105197906494,
                -0.6829634308815002,
                -0.2936767637729645,
                -0.5364435315132141,
                -0.7148903608322144,
                -0.40087446570396423,
                -0.661633312702179,
                -0.6193426251411438,
                -0.5756464004516602,
                -0.747998058795929,
                -0.23705416917800903,
                -0.5575450658798218,
                -0.6167352795600891,
                -0.8544389009475708,
                -0.7967413067817688,
                0.3417219817638397,
                -0.5484846830368042,
                -0.6560391783714294,
                -0.6277041435241699,
                -0.5086902976036072,
                -0.41218456625938416,
                -0.6885087490081787,
                -0.4574263095855713,
                -0.4840798079967499,
                -0.7245672345161438,
                -0.369802862405777,
                -0.4532567858695984,
                -0.7297296524047852,
                -0.8479947447776794,
                -0.275100976228714,
                -0.6507412791252136,
                -0.5318503379821777,
                -0.7726629376411438,
                -0.8579995036125183,
                -0.8433782458305359,
                -0.36341220140457153,
                -0.4560394287109375,
                -0.6974537372589111,
                -0.4183503985404968
              ],
              "last_token_top_experts": [
                14,
                60,
                25,
                4,
                41
              ],
              "last_token_top_weights": [
                1.70703125,
